{
  "input_nodes": 16,
  "hidden_nodes": 32,
  "output_nodes": 3,
  "weights_ih": {
    "rows": 32,
    "cols": 16,
    "data": [
      [
        -3.91355121710649,
        -3.343702707573341,
        3.0328621982353545,
        0.8418088448987021,
        -1.2935296621004673,
        0.463574607656605,
        0.8919818777692563,
        0.09571597545908822,
        -2.000868229419533,
        0.531521854190341,
        -0.20738690202499405,
        -0.3045962412784105,
        1.526031809989791,
        0.6285989015140474,
        0.8521850654018661,
        1.3435054295181217
      ],
      [
        -0.7284899151638045,
        2.068708812347982,
        -1.2178312126030932,
        -1.1783755757529768,
        1.9730772386109843,
        -0.7504363212726914,
        3.1878045622370004,
        0.8549088682318529,
        1.4582860457683844,
        3.214546192134981,
        0.20306116952574027,
        -0.27727816421808094,
        0.7439916632878959,
        2.474807284062298,
        -0.8556014986772925,
        -1.3371718536055006
      ],
      [
        -2.5909602674446752,
        -4.591808229029794,
        4.6543951953252005,
        6.295200931177958,
        -0.9550543156485628,
        0.7667973046012571,
        -1.1604815408729265,
        -0.6621116634351596,
        -0.8763029340745695,
        -1.1902238016628208,
        1.3634032181659783,
        2.5227099209780985,
        -0.12451157762792758,
        -0.018557301535268023,
        0.3622228464001629,
        -0.8809227061130166
      ],
      [
        1.6033341331207125,
        2.008709831176718,
        -2.861960391844721,
        2.947844562874347,
        0.6336761158736618,
        -0.501280707136632,
        2.2536339398203027,
        -1.7780432560648052,
        0.9938158981031098,
        -0.6311622055522661,
        -1.3455006461206298,
        0.0033429393006299017,
        0.6353941574137432,
        0.4988903626668408,
        -0.35099828586346493,
        1.3077727077305321
      ],
      [
        -3.1845098608081015,
        1.6900525517522644,
        -2.8533967105435347,
        -0.25645201776920806,
        -3.536600369445397,
        -0.1924247970754022,
        -2.029794555868573,
        0.7714849104198922,
        -0.8934259255079509,
        -5.4905951306980985,
        2.1260896841873214,
        1.009121484403871,
        -1.3664517043344153,
        1.3694012897082564,
        -0.7462160986706715,
        1.3735232183403265
      ],
      [
        1.560842596988296,
        0.3665404963110284,
        1.270217571620551,
        0.9223366594632384,
        1.4748339031620146,
        1.5717660853569857,
        3.1794968909986356,
        -1.2280566966862367,
        1.0563563336064716,
        -0.2531706097303285,
        -2.6840363396695133,
        -0.4608532119299513,
        -1.7426922258370456,
        -3.383207252254634,
        -0.76376672526059,
        -2.2386298286862085
      ],
      [
        1.268550288626175,
        -0.9659236300527007,
        -2.978744222452937,
        1.9369288215871099,
        3.9414521387565404,
        2.2201091084522,
        -3.8207446565645093,
        3.302554293291405,
        -1.8993479655490153,
        3.5863699531101028,
        -0.2549679700111184,
        3.7286035855591004,
        -4.43508568300975,
        -0.29538748358940986,
        0.5853611358829744,
        2.3524618401156068
      ],
      [
        4.79983425563416,
        -2.3731261764793783,
        3.2213468062203665,
        2.006843026505151,
        -1.0442564698815286,
        1.7532598076395327,
        -0.0380573407758867,
        -0.6542316095444345,
        2.7573142590351845,
        2.5967319138708636,
        2.0907967446470432,
        -0.131877653806317,
        2.8653172816901775,
        2.9488296999215002,
        -1.8609522727011978,
        -1.635721868274232
      ],
      [
        2.11356266486623,
        0.5348395920373649,
        -0.17144670414334415,
        -1.358439638026819,
        -0.18750889128550352,
        1.621178289017837,
        -0.4886378360788347,
        -2.216254866343925,
        -0.1940619697737746,
        -2.850827761691674,
        1.3320496882626949,
        4.7954265195115084,
        -1.703342356052348,
        1.131867563118825,
        -0.4923915367488022,
        -0.9630597887510605
      ],
      [
        -1.927857730532903,
        -0.5270901326528178,
        1.1536553136889427,
        -0.5269757308118923,
        2.850132069796456,
        2.2044973638226955,
        0.45684901844547005,
        3.754268374740362,
        -2.1243017940952327,
        1.8198321865171485,
        3.0178805018628574,
        0.9461506989809024,
        -0.8074152243041599,
        -1.5940238145329502,
        1.6785790550984514,
        0.6231025688593936
      ],
      [
        1.9117122470111327,
        1.956136377815564,
        -1.3433683773644287,
        -0.27091377683254847,
        0.2759029047338371,
        -2.0286629073178863,
        1.1387760213024116,
        0.9189360651347426,
        -0.49533847319919333,
        -2.5595191663278114,
        -1.783570595360334,
        -1.4376513476113804,
        0.5042081312008071,
        1.747807328780856,
        1.4209177243347317,
        -1.398492805249456
      ],
      [
        0.6139514002708444,
        0.9297018419779954,
        -0.2558508754289599,
        0.4280949667311332,
        0.5453049642748603,
        0.6234078954739466,
        2.284679732561577,
        1.367087241453602,
        1.4440828081345378,
        1.463737187123859,
        2.5259636417049696,
        -0.7361953508134993,
        0.7398854462095837,
        2.418725563058828,
        1.0247956534159184,
        -1.5288740366020146
      ],
      [
        0.1879362096396238,
        -1.9826295952444895,
        -1.2418836764426142,
        0.6973112137373102,
        -0.7551681862448801,
        -0.7409914531717068,
        0.20652797302240325,
        -1.452902140758391,
        -0.49994270067907604,
        -0.5029366102229078,
        0.3795456003292231,
        -2.348109091938785,
        0.4819542943871453,
        -0.4376353697504172,
        -0.9497605224817365,
        -0.979135991073802
      ],
      [
        3.2157712805924263,
        -0.28706908332142056,
        3.013403254948435,
        0.7916888409702622,
        0.08046475345592133,
        3.8512040554655615,
        0.5728245208650793,
        1.1234271792570694,
        -0.31606817319534375,
        0.22242005301111178,
        4.064423456627152,
        1.7842029043798695,
        1.6358651011649064,
        -0.4081009638093226,
        0.2864199832050862,
        -1.0466832569958369
      ],
      [
        -1.0494233507534705,
        0.5277886364269878,
        0.5221280641378325,
        0.5155917162450951,
        0.04770828589466075,
        -0.5573575660712731,
        -0.5231950358845815,
        -0.6385724008789375,
        -0.29987323755378836,
        0.5718285295279946,
        -1.3381293050897636,
        0.7083667438108971,
        -1.6419365548122253,
        -0.607115187089358,
        -1.164213873655563,
        0.7135467581478576
      ],
      [
        1.8940003689356595,
        -1.062978572779435,
        4.631235107842517,
        0.5945191865130867,
        4.216732860129203,
        -2.376656584654528,
        2.191924375198482,
        2.0369408347213835,
        -1.7094861555203524,
        -4.705482842627599,
        -1.9284096755494224,
        -1.1567840011178754,
        1.9023718741379543,
        1.0431685846260086,
        -2.293154877480319,
        -3.4712277196474655
      ],
      [
        -0.8580535767928832,
        4.151455920544099,
        -3.898695790909348,
        7.264833757531004,
        -0.83756787862734,
        2.528549661034046,
        -1.1747250892487218,
        -0.7221884900780979,
        -1.6695837622179812,
        2.428162270043241,
        0.3264477879021793,
        0.5920364053342732,
        -2.4068909058883743,
        -0.8373712773728325,
        0.1584864285075441,
        0.8437767626231103
      ],
      [
        1.6710395156518312,
        1.63391169075359,
        -1.398163597186801,
        -2.7192456503423252,
        3.3618406302277215,
        -0.3629669530019881,
        -0.3132903021956718,
        -2.517151759466994,
        -0.4002243093326569,
        -1.1525746831110621,
        -0.21899052988430362,
        1.3666316243981516,
        -0.22960272837558304,
        -0.10501609451527738,
        0.4487940502492861,
        0.269505271742638
      ],
      [
        -2.6946680437350548,
        -3.8987442990345644,
        2.320983442263188,
        -0.2333257390732766,
        3.742985691652541,
        0.8508815083985357,
        0.9677680484850558,
        -0.5378321903341055,
        -1.211797617509283,
        -2.56472315008526,
        2.8149261999017248,
        -0.24673002666969862,
        3.0181632721165195,
        1.841689649377589,
        -0.5485876915566135,
        0.1218032795654417
      ],
      [
        3.4151624485846632,
        2.6245252385564966,
        -1.4574697031840784,
        1.8050124929649283,
        -2.4951252287786465,
        -0.2510430638589445,
        0.7723620845857294,
        0.26867241406419984,
        -3.632115516763313,
        1.9171188044538476,
        -0.3794539411974028,
        1.0545541997625563,
        0.08806903699002042,
        0.7754394755140149,
        0.48304033923381856,
        2.0254764424321805
      ],
      [
        -4.49256991738159,
        0.534322791018413,
        2.385294877623434,
        0.4683994680172407,
        -0.9410116350436233,
        -1.0043102313683625,
        0.008138300783759477,
        -0.15276361170858152,
        0.6416891909414308,
        -0.38726664868658134,
        0.32673210305911765,
        -0.6853993024324129,
        -0.16445633374152438,
        1.705978492589255,
        -1.235447124064195,
        -0.24641030621930657
      ],
      [
        -3.435921722634583,
        -3.7602697484033887,
        -0.4664393279544782,
        -2.206267330331465,
        -0.27759215352416855,
        2.0304319661758785,
        1.0197899852310883,
        -2.9255970510180633,
        0.5357138562852212,
        -0.8800130433818267,
        -2.8725224887553895,
        0.22214165784816928,
        0.569563125205734,
        1.0675109404224894,
        -0.41695699564461536,
        2.0138786653056973
      ],
      [
        5.474014670601581,
        -1.3024260963736927,
        -4.549803746864388,
        -1.8031022107123027,
        0.3735263072163601,
        0.02722013208606305,
        -0.4533076834068588,
        -1.4514964259571754,
        0.6446259460166509,
        0.31116016001765473,
        0.5740457353991787,
        -0.6126969464830927,
        0.116950351925577,
        -1.8371716781920606,
        0.8398118515825586,
        0.6980147216935002
      ],
      [
        1.6026122060984505,
        -2.759072935122701,
        -2.474771397410318,
        -0.5988220329437292,
        -3.731829725804163,
        -1.6809619114433958,
        -0.25228585655301394,
        2.758846696923499,
        -1.1489008488792904,
        1.5768243868626746,
        -1.7159780594106253,
        3.092432842956722,
        -0.8578535163020514,
        0.48024684598966316,
        -0.6863482057183771,
        1.030776165028168
      ],
      [
        -0.517406749315886,
        -1.70729698253407,
        2.2144962129056704,
        1.5792318458022667,
        1.4216949751003343,
        -0.7986628977993518,
        -0.34412177886223433,
        -1.583250796438783,
        1.0825756316657822,
        -1.2866590362339616,
        0.8283904144513716,
        0.6039140872475689,
        -0.0002529752184003472,
        -0.6692575482788128,
        -0.03872388919670147,
        -0.7674236895655152
      ],
      [
        -1.094896534156949,
        -4.168774773895763,
        -4.402668862425564,
        -1.2178763293981454,
        -0.5298987424854872,
        -1.3414983308072614,
        -3.448065412675752,
        0.811886496014254,
        -0.8676120013081905,
        -0.343768409694835,
        -1.060120337276802,
        -0.19585113919807254,
        0.17114146693448162,
        0.9368548496288484,
        1.2512154716667296,
        0.34550645233147487
      ],
      [
        -5.063326956837052,
        -2.404347982234484,
        3.2235384005924206,
        3.036151574736508,
        -5.827207838808755,
        -3.6315055256109434,
        3.755628515306687,
        -0.8633354818409138,
        3.524438203062071,
        3.333618603683242,
        -3.49450952072594,
        0.525658981983384,
        2.297105375979289,
        -0.7538282849210456,
        -0.8359732842549235,
        -0.13502513466005106
      ],
      [
        0.19395818686604707,
        -4.11022356206273,
        0.3031593582653302,
        -1.6325287217317819,
        2.786191463610904,
        2.4372486405012244,
        0.03578666144233141,
        -1.1474370453858052,
        1.2465515614015494,
        -0.5907604193682561,
        2.688785077778334,
        3.2447862114658297,
        -1.456055368479212,
        -0.4031040923258405,
        -0.9983991015464067,
        -1.0057911429398863
      ],
      [
        0.09316910796471783,
        2.040276462156788,
        0.17290142102991207,
        1.6626665446433662,
        0.8482198270083969,
        -0.21519714327671638,
        1.3411432129401826,
        -0.8625964770919904,
        -1.2514167389717163,
        -0.32084688669451333,
        -1.707859479709113,
        1.0449416033054486,
        -0.7815040283549444,
        0.7839951864453379,
        -0.571888745698895,
        2.79857359370856
      ],
      [
        -1.304984916422825,
        4.66205630590871,
        -0.3784036646555248,
        -1.0004116459718007,
        3.975327612798557,
        1.4324810774979742,
        -2.8441752370613225,
        -0.8525102953491291,
        -0.015603971430137403,
        0.5043982939679263,
        -3.018174612106077,
        3.5927946454208453,
        -2.1191706347105606,
        -1.33760984248108,
        -1.0536733611062423,
        2.119640633216373
      ],
      [
        -3.791604807144642,
        0.5200024307215814,
        2.491360569828526,
        1.2004000020039176,
        1.650424911136429,
        -5.385533596195698,
        1.5572560958386765,
        1.4421113645212578,
        0.9898040462151948,
        -2.2507547574607867,
        0.22191226193444297,
        0.11558976139814754,
        -0.14578049029257586,
        0.5081214539189983,
        -0.43020507505990463,
        -1.554978361418904
      ],
      [
        1.7849329264988314,
        -1.7112574855553837,
        -3.4884994941711933,
        -4.954729207110006,
        -0.44647169574432166,
        -2.1467081773933083,
        -3.6320187172491094,
        -0.7991211547661927,
        0.019457082235200006,
        2.362445236983283,
        2.4621825108872706,
        3.566392744118057,
        1.1488688624165,
        0.2848037740355492,
        -0.1680717880771028,
        -0.46905263590545815
      ]
    ]
  },
  "weights_ho": {
    "rows": 3,
    "cols": 32,
    "data": [
      [
        -1.8454615970246886,
        -1.563862199664767,
        -2.623974782123344,
        -0.7040622811842322,
        -0.28618699805329384,
        -0.6117597099955582,
        -0.9847838497051412,
        -2.4686745457550505,
        1.266598775980859,
        -0.6880599006428118,
        -0.015959377651458436,
        -1.3638315007457071,
        0.913771230481564,
        -2.369347739886024,
        -0.19482271633834214,
        -1.4093228716505752,
        1.5167609537996323,
        -1.8709236785066232,
        2.92900944677759,
        1.3208301952966301,
        -1.4527471473225777,
        0.40930057225395333,
        -1.8778480322199105,
        -1.996948305114644,
        0.70911579131616,
        3.1547735931534686,
        3.241111965971147,
        2.3251474838257224,
        -0.07439281195217562,
        -0.8192845462423562,
        0.4372299477482546,
        2.964836043796956
      ],
      [
        -0.409522117812132,
        -2.087112675293508,
        2.8032937065605705,
        1.8226888858260386,
        3.2945515982732725,
        0.6779915630287553,
        3.7617750845074687,
        -2.6612716831448546,
        -2.115607872722392,
        1.2030755690801451,
        -1.8346455609881802,
        -1.058721135573823,
        -1.2047474943104672,
        -0.16205046849859273,
        0.376543603960141,
        1.3311015366356298,
        -3.2986683204316054,
        0.37964163500960507,
        0.025134528871426556,
        1.9838127568486061,
        0.6165864915414162,
        -1.317709176029965,
        -0.379432380529745,
        0.7428627513039772,
        0.40092432718320137,
        -0.5882889885017143,
        2.532839589514965,
        0.5670939570707219,
        0.6551423947140469,
        -2.7857268200697076,
        1.0309841806402629,
        -1.3022627595526388
      ],
      [
        1.1730994844184228,
        -1.8914156081115925,
        2.2924673768752895,
        0.23712767625483763,
        -0.2545491490927767,
        -2.2633928066499003,
        1.5479692002304233,
        -2.6748209442812594,
        1.7222355742461355,
        -1.6888532587378768,
        -0.30391951570447506,
        -0.3178649561579723,
        -0.2887906431748209,
        -1.134186124611056,
        -0.717782802814541,
        -1.7621661501735582,
        -1.1583154254078423,
        -0.7848837057430031,
        1.4054532888836389,
        1.3094011851266756,
        -1.2170154807042675,
        -1.0830547409910243,
        0.6034623247492682,
        -1.3850442876385882,
        -1.2847460071362093,
        0.1285957153291724,
        2.400646937242905,
        1.4538545198861177,
        1.6098166292002816,
        -1.0697654173634839,
        2.737520161102841,
        -0.31054389937849913
      ]
    ]
  },
  "bias_h": {
    "rows": 32,
    "cols": 1,
    "data": [
      [
        0.028932362788027004
      ],
      [
        0.23271293095523332
      ],
      [
        -6.431372038399798
      ],
      [
        -0.13541460414054507
      ],
      [
        1.5366566768076195
      ],
      [
        0.7678631560693578
      ],
      [
        -0.3047638091890915
      ],
      [
        -0.8411774682038177
      ],
      [
        3.141639184285752
      ],
      [
        -0.6681382567196104
      ],
      [
        -0.9588921784692852
      ],
      [
        -0.2322964155857886
      ],
      [
        0.03589650928510372
      ],
      [
        -2.627148706182492
      ],
      [
        -1.0361982563814987
      ],
      [
        -0.04384494990601007
      ],
      [
        -4.53956114161058
      ],
      [
        -2.4976702275714957
      ],
      [
        2.69645706801254
      ],
      [
        -0.2993489323787197
      ],
      [
        -1.1733560489973942
      ],
      [
        1.0874853649844993
      ],
      [
        0.19632899416447191
      ],
      [
        -0.35824725096997745
      ],
      [
        0.4955094355591037
      ],
      [
        3.5104843839416464
      ],
      [
        4.948857674616066
      ],
      [
        3.310727717373452
      ],
      [
        0.4372339477114511
      ],
      [
        0.25556465269013545
      ],
      [
        -1.4717818829712852
      ],
      [
        2.866055285781957
      ]
    ]
  },
  "bias_o": {
    "rows": 3,
    "cols": 1,
    "data": [
      [
        -0.2838058983213496
      ],
      [
        -0.4046201534486283
      ],
      [
        -0.18966143168149402
      ]
    ]
  },
  "learning_rate": 0.1,
  "activation_function": {}
}
