{
  "input_nodes": 16,
  "hidden_nodes": 32,
  "output_nodes": 3,
  "weights_ih": {
    "rows": 32,
    "cols": 16,
    "data": [
      [
        -2.692993824536545,
        -0.21177516124661575,
        -1.7830791002350876,
        -0.6086234339060703,
        -3.8265880829022834,
        0.9197110211211859,
        -1.386245702924719,
        1.472458976750941,
        -0.361013206322625,
        -3.6472789546506976,
        0.617165728562994,
        3.978360355514811,
        0.41236183447814856,
        -0.1779732365744074,
        -0.9165029690552545,
        -0.14325969812140535
      ],
      [
        -1.9242503503019874,
        -5.618961004712453,
        5.698520569607371,
        7.15978304043792,
        -3.0761538657164125,
        1.209963761080896,
        -0.2129467288463317,
        1.5476601194012247,
        -0.42937912586551186,
        0.7744941384362107,
        0.0386166482832953,
        1.1165888067049496,
        -0.1348001721375717,
        0.2435664380366598,
        -0.8128105843284357,
        -0.9863362272213547
      ],
      [
        5.839082581514159,
        -6.111468397795048,
        4.015251565338542,
        0.8171082752797658,
        -2.140526773287754,
        -2.364766195831472,
        0.24428338530180288,
        1.3325706475498247,
        -0.11934710212621333,
        0.7233630350056913,
        3.2550362754692936,
        -1.331829882334867,
        0.3448749219679673,
        0.026375734567582226,
        -0.46611649765577673,
        -1.868093633793868
      ],
      [
        -3.530540115712088,
        0.6618386357868634,
        -2.506847838720826,
        -2.549435813413055,
        -2.6911006341606436,
        -0.7340730998553527,
        2.2156287175397593,
        -2.033745827063188,
        0.4969385783823825,
        -1.4284929129384467,
        2.919660568052915,
        0.596351823877224,
        1.620109708256103,
        -0.048295565046864636,
        1.5619240525906082,
        1.1578852103089106
      ],
      [
        -0.29249311748409557,
        -0.5241289608193662,
        0.823527258487874,
        -0.42134600924443666,
        -0.6963436738317229,
        -2.034730954959756,
        3.5869295349038897,
        4.114164810694385,
        -1.0774061889121402,
        -0.8778937839587855,
        -2.5830168732206387,
        -2.2050929616685613,
        0.4602036083054871,
        1.6415493222074,
        -0.5098687056823823,
        -2.7450312199280575
      ],
      [
        -2.4860915232182155,
        -0.7064073992846273,
        2.703490029254577,
        -0.09351282227285451,
        -0.9481915311409406,
        -2.536832976740747,
        -1.7653931514307464,
        -2.364757772613838,
        -0.7591257303007973,
        -1.9670578228142923,
        -2.800651066251601,
        -0.30108425291894486,
        1.4692773184223247,
        -2.020550317688901,
        1.1831392238269136,
        3.3881011573678173
      ],
      [
        2.085032560972108,
        0.9527521393746525,
        -1.8956602760635006,
        -1.2476876918478292,
        0.08214643592018016,
        2.540092677321091,
        1.2712276208233306,
        0.5586873900888227,
        -0.27094670109993624,
        1.7723942053460604,
        -2.162203186653159,
        -1.1493658167943746,
        0.40977868449804666,
        2.105090690532958,
        -1.5635270623952255,
        -0.15221970825315342
      ],
      [
        -2.681483000124993,
        1.0232668589671647,
        -2.4455728434173944,
        -1.680621382933892,
        0.9890990604318693,
        0.2890007232924397,
        -2.7515686901289045,
        -0.7754251160182227,
        -0.839407129656189,
        0.2772920413126125,
        1.3049509883608732,
        0.8827341679652009,
        0.9823976289264705,
        0.941892369618578,
        0.6448928600933186,
        2.3485296300445433
      ],
      [
        -0.9633719367297663,
        -2.589462995454774,
        -2.4448934429178504,
        -0.2742637917503487,
        0.951382725485207,
        -1.6378432061903188,
        -1.2620712702011303,
        -0.09334409100379219,
        1.5656169756123817,
        0.05749830205484145,
        -2.7579230658296026,
        1.2255568526081055,
        0.374679627896874,
        0.07484562863305788,
        -0.3709098084456613,
        0.8466316901083013
      ],
      [
        -0.998448644963206,
        -0.4309908486321661,
        -0.673586922412556,
        -0.15335695924698914,
        2.324990194335509,
        -0.08766588918551231,
        -0.842840151758132,
        -0.8441041456604852,
        -3.2991229383019385,
        -0.33293346821015146,
        -1.765892313823589,
        -0.5727675925128406,
        0.4635281061106133,
        -2.4915617711902023,
        -0.6270412586973096,
        0.33441687880157667
      ],
      [
        2.627321679670438,
        0.20343999180063987,
        -1.2754989035248343,
        -0.5658516799839012,
        -1.7539729952890974,
        2.7540955573443937,
        -0.03788949501622706,
        1.4939460867438816,
        -0.2920312718615625,
        1.5866588700258417,
        -2.96031997635541,
        0.18396570356324501,
        1.1031119510956695,
        -3.2780836623646064,
        0.9978176402392536,
        0.5117659771113622
      ],
      [
        0.2692678834485738,
        -1.6331887954703246,
        1.2314072034127503,
        -1.72966878811245,
        1.2752223744414717,
        0.3492428577655929,
        -1.5778247895268382,
        2.233464331492472,
        1.4722726868671743,
        -1.2699553831151633,
        0.31457863013792153,
        -0.4229098096378609,
        1.9011655225613882,
        0.4969943919391881,
        1.4034052892759703,
        0.7800759532922908
      ],
      [
        -0.814172473839005,
        -2.531838792219393,
        1.6936805228143115,
        -0.06270391433409361,
        4.102858056640953,
        0.406609468861638,
        -0.04540577587352147,
        5.3112682335069366,
        -3.544430214311297,
        -0.24828122241334397,
        1.7024973120495461,
        2.740854511274467,
        -2.8691336303065644,
        -2.6280789137874487,
        0.780144979808053,
        1.5486842914082035
      ],
      [
        3.5637433563244345,
        -3.154628046846431,
        -1.0607718797922152,
        0.9470509379727472,
        2.4564327950547318,
        2.8432875769987107,
        1.8295048990586844,
        -1.5145711650093134,
        1.9271261054227298,
        -2.4083780307155256,
        -0.7073169401448011,
        2.2948589127036088,
        -2.871771062687344,
        -1.671308934409482,
        0.010729950021892146,
        -2.0236968403615263
      ],
      [
        -1.7670369079759707,
        -3.694620213610473,
        0.9042246531882959,
        2.75032152400985,
        2.6004580206612484,
        0.5141718498561842,
        0.08742232567001072,
        -2.199147201214345,
        -5.440906337833058,
        1.1845534088842304,
        0.8855512217755991,
        3.5086489599349813,
        -1.2690765946914084,
        1.7262757002411784,
        2.325006427497145,
        -0.48381120745547246
      ],
      [
        -1.5163142988547795,
        -1.169382237188628,
        -0.5221235074623899,
        0.18728422194707597,
        -2.796047111779072,
        -2.0142822865487684,
        -1.7029606847587828,
        3.4329419577967406,
        0.5770997453799408,
        1.6122042331215518,
        -0.28403235304038355,
        -1.421909996082176,
        0.3273897684465035,
        -0.5932134188566749,
        0.4469280841060801,
        -1.8914457629243224
      ],
      [
        1.243204510938362,
        -3.9652249568795948,
        -0.8303795222940866,
        -1.6784469570006932,
        -3.9908707488819686,
        0.7131429833597832,
        -2.3308209496640124,
        -0.9474646743026603,
        -2.3638599196071097,
        -1.396564517843833,
        0.3543377992690496,
        -1.117936923095715,
        -1.3175723876595167,
        -0.6225733726908044,
        0.14016877879172174,
        2.2366687759499335
      ],
      [
        2.0657464277643114,
        3.2998136345796323,
        -4.286383828124412,
        -5.829777244527882,
        -2.4606099190567865,
        2.827249319677129,
        -2.930701364601629,
        -0.5988892477629787,
        -0.6533110107645904,
        0.03242448655676885,
        2.565904892800473,
        2.4037230812378,
        -0.8268123294109033,
        -0.9577250039153141,
        -0.6527578469455568,
        1.8439434363250642
      ],
      [
        0.34120623405608824,
        -0.3520828860073627,
        1.7785176946913839,
        -1.212002992009353,
        -1.8683843071037576,
        3.030227714825126,
        3.14837083434684,
        -0.5154141027185464,
        -2.441436386067375,
        0.04277402200299079,
        4.964474696662136,
        -1.95675367949171,
        -0.8235494065277118,
        -1.851527998342919,
        0.890125834169094,
        1.3310134185793439
      ],
      [
        -2.3577021288443425,
        -3.1906346620987054,
        2.447474015181577,
        -2.9499127430209833,
        0.013781990567548722,
        -1.5098353959039552,
        -4.148120374812262,
        0.08040210725794092,
        0.2551850048922862,
        -1.4073824226024063,
        -2.581145993125602,
        -3.035950075227328,
        1.4549968224134353,
        -0.20338048246927443,
        -0.8669449702106539,
        -1.351182375484392
      ],
      [
        -0.8185104026677211,
        -0.8067657598942612,
        4.492394234283222,
        1.967703810125141,
        1.2613095287050704,
        0.5818336003350252,
        -1.90342538046756,
        -0.10277416132023268,
        -0.6543773683637982,
        2.385051434754416,
        1.9212555908067397,
        1.6973778504622483,
        0.442976674315125,
        0.9255923622316455,
        -0.20698095148658585,
        -0.3203929305107074
      ],
      [
        -4.351579780620131,
        3.1204861340878507,
        -3.2007137908027166,
        -1.4069542739285086,
        -1.1054458611076161,
        -1.3476620178443968,
        -0.28711469749756136,
        0.06875755277850985,
        -0.19832006342225264,
        1.180697067558259,
        -0.48930144049482455,
        -2.207307632764657,
        -2.8050603020206912,
        1.891399967278879,
        1.4667945272859213,
        -1.0631745875671632
      ],
      [
        -4.1950062322737205,
        1.3208777080038299,
        -3.3651067226665003,
        -1.6774147799383612,
        0.7661160975867962,
        -4.36678441330735,
        1.2158240867961168,
        0.9207910886309478,
        -3.334999826008107,
        1.1418558631385454,
        0.4545791435610516,
        2.2355990508167047,
        -0.06259877369938764,
        0.47097773416839556,
        -1.2035110347574802,
        0.1927427600168868
      ],
      [
        3.249434337800678,
        2.540434219429378,
        -2.4207637939942552,
        -0.7572746875639487,
        -2.1294420922043074,
        0.3053882048243157,
        0.17603052191529628,
        1.6618837845541943,
        -5.327691634251287,
        -0.30664726780888407,
        -0.8690365563433079,
        -1.0904062212918917,
        -1.1747520556447513,
        1.57408327867267,
        0.30921363891229836,
        1.0987983070238776
      ],
      [
        -4.015313539747714,
        1.653046625220674,
        0.5595020277746281,
        2.270003327737805,
        -1.5037843584312431,
        -1.766617213276168,
        1.434046361739094,
        0.6153931794041564,
        1.5998158176542674,
        0.8767463004271616,
        0.8951890861741005,
        -0.33973690880210383,
        -1.2691635080248098,
        0.6243735995169808,
        0.2382376082494932,
        1.157409157109008
      ],
      [
        -2.011975744271213,
        0.3828505945149684,
        -2.4132005678447004,
        0.5890869324129375,
        0.5898000862053467,
        -1.7410257784668262,
        0.0876289403818982,
        -1.98605301277741,
        -2.2512061685895044,
        -0.4915888813116616,
        -0.5470595825783389,
        -1.0631069937096689,
        -0.46973553848168315,
        -1.1120091987092537,
        0.13185665459100399,
        1.6287971021562504
      ],
      [
        -0.48136540311805764,
        -1.6642191419410133,
        3.7149019143496704,
        -1.2506616608848407,
        -1.597684556133633,
        -1.8890205852695656,
        2.5003545697691214,
        -1.6460995966904355,
        2.3807983953922798,
        -0.257946354410079,
        -1.8990806417233488,
        -1.6584163731906412,
        3.049330620371424,
        -0.49943207534599815,
        -2.8107602317344558,
        -2.519062250482999
      ],
      [
        2.5286950674176483,
        -0.7958736555774055,
        1.2340139102684105,
        0.10536875280083224,
        -1.2484836495516602,
        1.1736697529907203,
        1.1419268020428714,
        0.6044335033873717,
        4.158064353187479,
        1.9797250064614484,
        2.4979962176380845,
        -0.24621840228290645,
        1.5216014606802826,
        3.0935399612712935,
        -0.7338031169128179,
        -1.3043351845208804
      ],
      [
        -0.8780755486899645,
        -0.41043505476838155,
        -0.9693233668766087,
        0.7477788527189293,
        -0.6564933260017694,
        -1.2355205230009214,
        -0.32489368381912653,
        1.4347855861081302,
        0.042798594049715116,
        2.0633174669314687,
        -0.04461464316467522,
        -3.5048359573236856,
        -0.24645732822305744,
        -0.2543074460277545,
        1.5977361147157156,
        0.2931314222077257
      ],
      [
        -2.8024377325465855,
        -3.295028209072634,
        1.4590329668607176,
        2.712588587715829,
        -2.02841782137986,
        0.5753757597090882,
        2.0646267674017165,
        1.5718322925120445,
        4.213672036329684,
        1.5690453450068222,
        -2.07930153712263,
        -1.8415434587065382,
        0.6777547519863649,
        -1.2222572905047948,
        1.810259539301381,
        -0.9153300316885428
      ],
      [
        -0.36569879814873446,
        -2.1093426117641325,
        -1.8009879100603388,
        0.6817258190490726,
        -0.7776544503845976,
        -1.9381193950401592,
        -1.788941646355972,
        2.1870819294081625,
        -0.33655363055477794,
        0.5485286064027515,
        0.6166757400906272,
        1.217260130374693,
        -0.9215155597626339,
        2.277226612419151,
        1.0239698734236298,
        1.2618155367262391
      ],
      [
        0.27841688033730216,
        1.3662572388840997,
        0.39021883782903316,
        3.1307648111799673,
        -4.238223416198521,
        -1.3855462888426888,
        2.6472300176124124,
        -0.3294687380609788,
        0.21581301464622607,
        1.1329927755221163,
        -2.9711238803844107,
        3.8760462162231675,
        0.9258297918932176,
        -0.6025640791500951,
        -0.5919627143691818,
        0.6794705842325662
      ]
    ]
  },
  "weights_ho": {
    "rows": 3,
    "cols": 32,
    "data": [
      [
        0.539017760460483,
        -3.4243569512051684,
        2.7373557505066897,
        0.37120114266017096,
        -1.8056774362863435,
        -1.5582695361574839,
        -0.6148872095648339,
        -0.2808681457371488,
        1.194032868690154,
        0.1896593983610344,
        0.5469035621662413,
        -0.3290471551398648,
        -2.214781174319601,
        -1.5714143250071035,
        2.7771775768339504,
        -0.3024061756831149,
        3.3350218236813993,
        2.826253609981374,
        -1.4255096232888624,
        2.8419941041057086,
        -0.9543063582450394,
        1.9561213491336258,
        1.3474097339202245,
        -2.192947076381335,
        0.9925173482634218,
        2.121580336695192,
        0.6242807807276552,
        -2.3417952685151024,
        -0.1260356796499981,
        1.929390865079873,
        0.20518068460207897,
        0.30921010648389935
      ],
      [
        3.179532282001386,
        2.605206637655305,
        1.951383941252845,
        0.537065462202243,
        0.7769193009817231,
        0.08449998738342564,
        0.2824554903305545,
        -1.473103369964075,
        0.082190958927158,
        1.7933346107592587,
        -2.0317716097482545,
        0.4603520406016419,
        2.616345651060336,
        -0.6727210456864472,
        -0.7878643601610951,
        -0.4126429350323163,
        2.48423393045927,
        -2.74290942784286,
        2.072075383849042,
        -1.6513500680647335,
        -0.1540313929782795,
        1.6068052878835501,
        2.2584377460472975,
        -1.7062903688829971,
        -1.1372205530547272,
        0.31242271492548634,
        -3.165606115929471,
        -2.019312108031594,
        1.3747730070891098,
        0.21420017784812917,
        -0.5663676503683177,
        2.360471810877579
      ],
      [
        0.009871734134235947,
        2.415166255124673,
        1.6441374437463219,
        2.505044531595398,
        -1.6061317668905408,
        -1.9157738291202389,
        -1.9333349361805146,
        0.0386107154665526,
        -0.7767342181485611,
        0.600097331026932,
        -0.1950421103273379,
        1.325875077186874,
        0.4452099924398117,
        -2.427312856185196,
        0.7725923675565604,
        -1.9988096211731117,
        1.7526371747921812,
        -0.7679559849371905,
        -0.18599649807175847,
        1.6841820489089143,
        -2.838090464784019,
        1.7805955664133766,
        2.1443217006518314,
        -1.0604728201788662,
        -0.8976005848916627,
        0.41439957002897654,
        -1.0102741825302999,
        -1.3295843599661632,
        -0.819349767670052,
        1.7810275246794773,
        1.3969745844023556,
        1.8842482814099706
      ]
    ]
  },
  "bias_h": {
    "rows": 32,
    "cols": 1,
    "data": [
      [
        -0.5282469857678148
      ],
      [
        -7.768030053088111
      ],
      [
        -3.0312753764807505
      ],
      [
        3.760884362375398
      ],
      [
        -1.2388646525903728
      ],
      [
        3.9168115668052583
      ],
      [
        0.8941320110814297
      ],
      [
        0.584204724377643
      ],
      [
        -0.27399835680060197
      ],
      [
        0.23186794545018444
      ],
      [
        1.5071784877228533
      ],
      [
        1.322555832528659
      ],
      [
        2.3543721642831326
      ],
      [
        -1.7173681073209166
      ],
      [
        1.0297707507812839
      ],
      [
        -0.16001457396026894
      ],
      [
        2.2907561025522845
      ],
      [
        5.7294902176997535
      ],
      [
        1.8939118860542548
      ],
      [
        0.957177530154113
      ],
      [
        -0.9535298938299005
      ],
      [
        0.3540181298974822
      ],
      [
        -0.759047635329437
      ],
      [
        1.2345540027746476
      ],
      [
        -1.378921580460439
      ],
      [
        1.4128271493933668
      ],
      [
        -0.5332922814619806
      ],
      [
        -0.02082726178333694
      ],
      [
        -1.6670511513708441
      ],
      [
        2.3965953187130884
      ],
      [
        0.45201011702350335
      ],
      [
        0.29735643130192446
      ]
    ]
  },
  "bias_o": {
    "rows": 3,
    "cols": 1,
    "data": [
      [
        -1.0220876911952073
      ],
      [
        -0.2407362984460596
      ],
      [
        -0.7408071097339415
      ]
    ]
  },
  "learning_rate": 0.1,
  "activation_function": {}
}
